digraph Tree {
node [shape=box] ;
0 [label="X[5] <= 0.5\ngini = 0.473\nsamples = 891\nvalue = [549, 342]"] ;
1 [label="X[4] <= 0.0513\ngini = 0.3064\nsamples = 577\nvalue = [468, 109]"] ;
0 -> 1 [labeldistance=2.5, labelangle=45, headlabel="True"] ;
2 [label="X[3] <= 0.5\ngini = 0.2264\nsamples = 415\nvalue = [361, 54]"] ;
1 -> 2 ;
3 [label="X[1] <= 0.4055\ngini = 0.1842\nsamples = 380\nvalue = [341, 39]"] ;
2 -> 3 ;
4 [label="X[1] <= 0.3836\ngini = 0.2054\nsamples = 284\nvalue = [251, 33]"] ;
3 -> 4 ;
5 [label="X[7] <= 0.5\ngini = 0.1812\nsamples = 268\nvalue = [241, 27]"] ;
4 -> 5 ;
6 [label="gini = 0.1569\nsamples = 233\nvalue = [213, 20]"] ;
5 -> 6 ;
7 [label="gini = 0.32\nsamples = 35\nvalue = [28, 7]"] ;
5 -> 7 ;
8 [label="gini = 0.4688\nsamples = 16\nvalue = [10, 6]"] ;
4 -> 8 ;
9 [label="X[4] <= 0.0154\ngini = 0.1172\nsamples = 96\nvalue = [90, 6]"] ;
3 -> 9 ;
10 [label="gini = 0.0\nsamples = 36\nvalue = [36, 0]"] ;
9 -> 10 ;
11 [label="X[4] <= 0.0156\ngini = 0.18\nsamples = 60\nvalue = [54, 6]"] ;
9 -> 11 ;
12 [label="gini = 0.5\nsamples = 4\nvalue = [2, 2]"] ;
11 -> 12 ;
13 [label="gini = 0.1327\nsamples = 56\nvalue = [52, 4]"] ;
11 -> 13 ;
14 [label="X[1] <= 0.1489\ngini = 0.4898\nsamples = 35\nvalue = [20, 15]"] ;
2 -> 14 ;
15 [label="gini = 0.2907\nsamples = 17\nvalue = [3, 14]"] ;
14 -> 15 ;
16 [label="gini = 0.1049\nsamples = 18\nvalue = [17, 1]"] ;
14 -> 16 ;
17 [label="X[2] <= 2.5\ngini = 0.4485\nsamples = 162\nvalue = [107, 55]"] ;
1 -> 17 ;
18 [label="X[1] <= 0.6621\ngini = 0.4751\nsamples = 139\nvalue = [85, 54]"] ;
17 -> 18 ;
19 [label="X[4] <= 0.0523\ngini = 0.4918\nsamples = 117\nvalue = [66, 51]"] ;
18 -> 19 ;
20 [label="gini = 0.2604\nsamples = 13\nvalue = [2, 11]"] ;
19 -> 20 ;
21 [label="X[4] <= 0.0561\ngini = 0.4734\nsamples = 104\nvalue = [64, 40]"] ;
19 -> 21 ;
22 [label="gini = 0.0\nsamples = 9\nvalue = [9, 0]"] ;
21 -> 22 ;
23 [label="gini = 0.4875\nsamples = 95\nvalue = [55, 40]"] ;
21 -> 23 ;
24 [label="X[1] <= 0.9437\ngini = 0.2355\nsamples = 22\nvalue = [19, 3]"] ;
18 -> 24 ;
25 [label="X[9] <= 0.5\ngini = 0.1723\nsamples = 21\nvalue = [19, 2]"] ;
24 -> 25 ;
26 [label="gini = 0.375\nsamples = 8\nvalue = [6, 2]"] ;
25 -> 26 ;
27 [label="gini = 0.0\nsamples = 13\nvalue = [13, 0]"] ;
25 -> 27 ;
28 [label="gini = 0.0\nsamples = 1\nvalue = [0, 1]"] ;
24 -> 28 ;
29 [label="X[1] <= 0.0426\ngini = 0.0832\nsamples = 23\nvalue = [22, 1]"] ;
17 -> 29 ;
30 [label="gini = 0.1975\nsamples = 9\nvalue = [8, 1]"] ;
29 -> 30 ;
31 [label="gini = 0.0\nsamples = 14\nvalue = [14, 0]"] ;
29 -> 31 ;
32 [label="X[0] <= 2.5\ngini = 0.3828\nsamples = 314\nvalue = [81, 233]"] ;
0 -> 32 [labeldistance=2.5, labelangle=-45, headlabel="False"] ;
33 [label="X[4] <= 0.0563\ngini = 0.1003\nsamples = 170\nvalue = [9, 161]"] ;
32 -> 33 ;
34 [label="X[4] <= 0.0551\ngini = 0.18\nsamples = 70\nvalue = [7, 63]"] ;
33 -> 34 ;
35 [label="X[1] <= 0.6996\ngini = 0.1588\nsamples = 69\nvalue = [6, 63]"] ;
34 -> 35 ;
36 [label="X[2] <= 0.5\ngini = 0.1381\nsamples = 67\nvalue = [5, 62]"] ;
35 -> 36 ;
37 [label="gini = 0.0849\nsamples = 45\nvalue = [2, 43]"] ;
36 -> 37 ;
38 [label="gini = 0.2355\nsamples = 22\nvalue = [3, 19]"] ;
36 -> 38 ;
39 [label="gini = 0.5\nsamples = 2\nvalue = [1, 1]"] ;
35 -> 39 ;
40 [label="gini = 0.0\nsamples = 1\nvalue = [1, 0]"] ;
34 -> 40 ;
41 [label="X[3] <= 1.5\ngini = 0.0392\nsamples = 100\nvalue = [2, 98]"] ;
33 -> 41 ;
42 [label="gini = 0.0\nsamples = 84\nvalue = [0, 84]"] ;
41 -> 42 ;
43 [label="gini = 0.2188\nsamples = 16\nvalue = [2, 14]"] ;
41 -> 43 ;
44 [label="X[4] <= 0.0456\ngini = 0.5\nsamples = 144\nvalue = [72, 72]"] ;
32 -> 44 ;
45 [label="X[1] <= 0.2053\ngini = 0.4839\nsamples = 117\nvalue = [48, 69]"] ;
44 -> 45 ;
46 [label="X[2] <= 2.5\ngini = 0.4038\nsamples = 57\nvalue = [16, 41]"] ;
45 -> 46 ;
47 [label="X[4] <= 0.03\ngini = 0.3795\nsamples = 55\nvalue = [14, 41]"] ;
46 -> 47 ;
48 [label="gini = 0.4497\nsamples = 41\nvalue = [14, 27]"] ;
47 -> 48 ;
49 [label="gini = 0.0\nsamples = 14\nvalue = [0, 14]"] ;
47 -> 49 ;
50 [label="gini = 0.0\nsamples = 2\nvalue = [2, 0]"] ;
46 -> 50 ;
51 [label="X[1] <= 0.4556\ngini = 0.4978\nsamples = 60\nvalue = [32, 28]"] ;
45 -> 51 ;
52 [label="X[1] <= 0.4055\ngini = 0.4998\nsamples = 53\nvalue = [26, 27]"] ;
51 -> 52 ;
53 [label="gini = 0.4992\nsamples = 50\nvalue = [26, 24]"] ;
52 -> 53 ;
54 [label="gini = 0.0\nsamples = 3\nvalue = [0, 3]"] ;
52 -> 54 ;
55 [label="gini = 0.2449\nsamples = 7\nvalue = [6, 1]"] ;
51 -> 55 ;
56 [label="X[3] <= 0.5\ngini = 0.1975\nsamples = 27\nvalue = [24, 3]"] ;
44 -> 56 ;
57 [label="gini = 0.0\nsamples = 1\nvalue = [0, 1]"] ;
56 -> 57 ;
58 [label="X[4] <= 0.0612\ngini = 0.142\nsamples = 26\nvalue = [24, 2]"] ;
56 -> 58 ;
59 [label="gini = 0.0\nsamples = 15\nvalue = [15, 0]"] ;
58 -> 59 ;
60 [label="gini = 0.2975\nsamples = 11\nvalue = [9, 2]"] ;
58 -> 60 ;
}