digraph Tree {
node [shape=box, style="filled", color="black"] ;
graph [ranksep=equally, splines=polyline] ;
0 [label="Sex_female <= 0.5\ngini = 0.473\nsamples = 891\nvalue = [549, 342]\nclass = Wasted", fillcolor="#e5813960"] ;
1 [label="Fare <= 26.2687\ngini = 0.3064\nsamples = 577\nvalue = [468, 109]\nclass = Wasted", fillcolor="#e58139c4"] ;
0 -> 1 [labeldistance=2.5, labelangle=45, headlabel="True"] ;
2 [label="Parch <= 0.5\ngini = 0.2264\nsamples = 415\nvalue = [361, 54]\nclass = Wasted", fillcolor="#e58139d9"] ;
1 -> 2 ;
3 [label="Age <= 32.5\ngini = 0.1842\nsamples = 380\nvalue = [341, 39]\nclass = Wasted", fillcolor="#e58139e2"] ;
2 -> 3 ;
4 [label="gini = 0.2054\nsamples = 284\nvalue = [251, 33]\nclass = Wasted", fillcolor="#e58139dd"] ;
3 -> 4 ;
5 [label="gini = 0.1172\nsamples = 96\nvalue = [90, 6]\nclass = Wasted", fillcolor="#e58139ee"] ;
3 -> 5 ;
6 [label="Age <= 12.0\ngini = 0.4898\nsamples = 35\nvalue = [20, 15]\nclass = Wasted", fillcolor="#e5813940"] ;
2 -> 6 ;
7 [label="gini = 0.2907\nsamples = 17\nvalue = [3, 14]\nclass = Prevailed", fillcolor="#399de5c8"] ;
6 -> 7 ;
8 [label="gini = 0.1049\nsamples = 18\nvalue = [17, 1]\nclass = Wasted", fillcolor="#e58139f0"] ;
6 -> 8 ;
9 [label="SibSp <= 2.5\ngini = 0.4485\nsamples = 162\nvalue = [107, 55]\nclass = Wasted", fillcolor="#e581397c"] ;
1 -> 9 ;
10 [label="Age <= 53.0\ngini = 0.4751\nsamples = 139\nvalue = [85, 54]\nclass = Wasted", fillcolor="#e581395d"] ;
9 -> 10 ;
11 [label="gini = 0.4918\nsamples = 117\nvalue = [66, 51]\nclass = Wasted", fillcolor="#e581393a"] ;
10 -> 11 ;
12 [label="gini = 0.2355\nsamples = 22\nvalue = [19, 3]\nclass = Wasted", fillcolor="#e58139d7"] ;
10 -> 12 ;
13 [label="Age <= 3.5\ngini = 0.0832\nsamples = 23\nvalue = [22, 1]\nclass = Wasted", fillcolor="#e58139f3"] ;
9 -> 13 ;
14 [label="gini = 0.1975\nsamples = 9\nvalue = [8, 1]\nclass = Wasted", fillcolor="#e58139df"] ;
13 -> 14 ;
15 [label="gini = 0.0\nsamples = 14\nvalue = [14, 0]\nclass = Wasted", fillcolor="#e58139ff"] ;
13 -> 15 ;
16 [label="Pclass <= 2.5\ngini = 0.3828\nsamples = 314\nvalue = [81, 233]\nclass = Prevailed", fillcolor="#399de5a6"] ;
0 -> 16 [labeldistance=2.5, labelangle=-45, headlabel="False"] ;
17 [label="Fare <= 28.8563\ngini = 0.1003\nsamples = 170\nvalue = [9, 161]\nclass = Prevailed", fillcolor="#399de5f1"] ;
16 -> 17 ;
18 [label="Fare <= 28.2313\ngini = 0.18\nsamples = 70\nvalue = [7, 63]\nclass = Prevailed", fillcolor="#399de5e3"] ;
17 -> 18 ;
19 [label="gini = 0.1588\nsamples = 69\nvalue = [6, 63]\nclass = Prevailed", fillcolor="#399de5e7"] ;
18 -> 19 ;
20 [label="gini = 0.0\nsamples = 1\nvalue = [1, 0]\nclass = Wasted", fillcolor="#e58139ff"] ;
18 -> 20 ;
21 [label="Parch <= 1.5\ngini = 0.0392\nsamples = 100\nvalue = [2, 98]\nclass = Prevailed", fillcolor="#399de5fa"] ;
17 -> 21 ;
22 [label="gini = 0.0\nsamples = 84\nvalue = [0, 84]\nclass = Prevailed", fillcolor="#399de5ff"] ;
21 -> 22 ;
23 [label="gini = 0.2188\nsamples = 16\nvalue = [2, 14]\nclass = Prevailed", fillcolor="#399de5db"] ;
21 -> 23 ;
24 [label="Fare <= 23.35\ngini = 0.5\nsamples = 144\nvalue = [72, 72]\nclass = Wasted", fillcolor="#e5813900"] ;
16 -> 24 ;
25 [label="Age <= 16.5\ngini = 0.4839\nsamples = 117\nvalue = [48, 69]\nclass = Prevailed", fillcolor="#399de54e"] ;
24 -> 25 ;
26 [label="gini = 0.4038\nsamples = 57\nvalue = [16, 41]\nclass = Prevailed", fillcolor="#399de59b"] ;
25 -> 26 ;
27 [label="gini = 0.4978\nsamples = 60\nvalue = [32, 28]\nclass = Wasted", fillcolor="#e5813920"] ;
25 -> 27 ;
28 [label="Parch <= 0.5\ngini = 0.1975\nsamples = 27\nvalue = [24, 3]\nclass = Wasted", fillcolor="#e58139df"] ;
24 -> 28 ;
29 [label="gini = 0.0\nsamples = 1\nvalue = [0, 1]\nclass = Prevailed", fillcolor="#399de5ff"] ;
28 -> 29 ;
30 [label="gini = 0.142\nsamples = 26\nvalue = [24, 2]\nclass = Wasted", fillcolor="#e58139ea"] ;
28 -> 30 ;
{rank=same ; 0} ;
{rank=same ; 1; 16} ;
{rank=same ; 2; 9; 17; 24} ;
{rank=same ; 3; 6; 10; 13; 18; 21; 25; 28} ;
{rank=same ; 4; 5; 7; 8; 11; 12; 14; 15; 19; 20; 22; 23; 26; 27; 29; 30} ;
}